{
  "input_nodes": 7,
  "hidden_nodes": 6,
  "output_nodes": 1,
  "weights_ih": {
    "rows": 6,
    "cols": 7,
    "data": [
      [
        -1.1439532159760624,
        -1.318134567167288,
        -2.171888590590904,
        0.8806008829276207,
        3.143720155648988,
        0.19914274242119306,
        0.7958883181266186
      ],
      [
        -0.39126218919757966,
        0.9520718512108999,
        0.012235561266099926,
        0.800326199310136,
        -3.606197423824856,
        2.1529734142807264,
        2.8215822523301166
      ],
      [
        1.2330846498172028,
        -1.2791509465123776,
        -0.48532812948314674,
        -4.2664048307637215,
        -0.9855827092592108,
        1.4633762443597962,
        0.4869099942297606
      ],
      [
        0.0813360149199558,
        2.620157963016973,
        -0.8550504986559367,
        -1.49585512633318,
        -1.915328238033931,
        2.1036239651700326,
        -0.6253201866409478
      ],
      [
        1.7729227608006575,
        -1.4507810906273446,
        2.4373165053101387,
        -0.508820273773565,
        1.2672348410071317,
        -3.9028820160453326,
        -4.79494044685978
      ],
      [
        1.1262880531567054,
        1.2109403199085638,
        0.5483015414515979,
        0.5625056394196142,
        -3.3228857692800764,
        -1.0575973100894065,
        0.8678047813767278
      ]
    ]
  },
  "weights_ho": {
    "rows": 1,
    "cols": 6,
    "data": [
      [
        1.4810543095929452,
        -0.5380943419109377,
        -2.486697660065025,
        0.12271413255711751,
        7.4389134221991675,
        -2.372219582321465
      ]
    ]
  },
  "bias_h": {
    "rows": 6,
    "cols": 1,
    "data": [
      [
        1.590135891636446
      ],
      [
        0.09198784604282095
      ],
      [
        -3.498326860431823
      ],
      [
        -2.1598833801879507
      ],
      [
        0.4486612175756366
      ],
      [
        1.13307041544653
      ]
    ]
  },
  "bias_o": {
    "rows": 1,
    "cols": 1,
    "data": [
      [
        -0.9182871140365507
      ]
    ]
  },
  "learning_rate": 0.1,
  "activation_function": {}
}
