{
  "input_nodes": 7,
  "hidden_nodes": 6,
  "output_nodes": 1,
  "weights_ih": {
    "rows": 6,
    "cols": 7,
    "data": [
      [
        -3.4407544110757895,
        -1.008027124644813,
        -0.8555575099037845,
        0.7135213866490702,
        -0.5706703425335407,
        -0.9671393344386969,
        -2.231902224926878
      ],
      [
        -2.471209897778774,
        1.2730218807658478,
        0.17216081555772372,
        -1.7433876728652329,
        2.493247489878579,
        -0.5915690866743906,
        -0.6934712508616209
      ],
      [
        1.4274468786468373,
        0.829399310978998,
        0.25732744906440697,
        -0.1813782591098851,
        1.1549096739866025,
        0.49255082769281533,
        -4.279647204037776
      ],
      [
        -1.2999203398896833,
        0.8719556589911628,
        -1.067194778730569,
        -0.3862909151129872,
        -1.5771740942097785,
        -1.4369281987079636,
        -0.032951773626018255
      ],
      [
        -2.620306690356171,
        0.46847570344630624,
        -1.0570869299657635,
        -0.033978970467977154,
        -1.3455113018894969,
        3.1865880811482823,
        2.9998032533393824
      ],
      [
        3.797902609576373,
        -1.5181986726994363,
        0.24587124395292825,
        -0.2792310640477359,
        0.46499579877354147,
        -0.20910813624202207,
        -3.601806307129773
      ]
    ]
  },
  "weights_ho": {
    "rows": 1,
    "cols": 6,
    "data": [
      [
        -0.35005698709944344,
        -0.6932346463191283,
        0.40899197654094077,
        -1.1103555418020805,
        -1.4373734376295624,
        3.5055016835572945
      ]
    ]
  },
  "bias_h": {
    "rows": 6,
    "cols": 1,
    "data": [
      [
        -1.6672789026972379
      ],
      [
        -1.666953295822701
      ],
      [
        -0.8969227487069802
      ],
      [
        -3.763283254423305
      ],
      [
        0.921708156871017
      ],
      [
        0.612172038052929
      ]
    ]
  },
  "bias_o": {
    "rows": 1,
    "cols": 1,
    "data": [
      [
        -0.5594129415314661
      ]
    ]
  },
  "learning_rate": 0.1,
  "activation_function": {}
}
