{
  "input_nodes": 4,
  "hidden_nodes": 8,
  "output_nodes": 2,
  "weights_ih": {
    "rows": 8,
    "cols": 4,
    "data": [
      [
        -3.777461953015369,
        -2.0364787555869626,
        -2.423595692601899,
        -0.19465946972656215
      ],
      [
        -1.248353007278653,
        0.17248844371297417,
        -0.720583603334299,
        -1.9166155436024075
      ],
      [
        0.9621642040492804,
        2.044701295519847,
        0.11574435754922652,
        0.3361368473435332
      ],
      [
        -2.252565811279083,
        -1.6176186807895394,
        0.4780472741175971,
        -2.7360243078716757
      ],
      [
        -2.466005995130453,
        -2.4914152658583175,
        -0.4620971375499677,
        2.354846594638434
      ],
      [
        1.922779397900011,
        1.1861311904883705,
        3.192913301569889,
        2.3015497251486807
      ],
      [
        2.0279284300277745,
        0.6688340128006026,
        1.2994149017525756,
        -1.0162236463344292
      ],
      [
        -3.2341443841011692,
        3.352534425592383,
        0.2036515476879267,
        -0.7704428151759657
      ]
    ]
  },
  "weights_ho": {
    "rows": 2,
    "cols": 8,
    "data": [
      [
        -0.3429632256924303,
        -2.486230706209835,
        0.024040649837126185,
        -0.6776520813090753,
        -1.3494170496539808,
        0.5080369788300866,
        0.48098577357515315,
        -0.044882483326283744
      ],
      [
        0.7886786731036405,
        0.02424448888279529,
        0.9834063931190318,
        0.6618498121116716,
        -2.160083553519536,
        -1.509480876812045,
        0.9957267141268655,
        0.9575362553999445
      ]
    ]
  },
  "bias_h": {
    "rows": 8,
    "cols": 1,
    "data": [
      [
        0.8833486075774286
      ],
      [
        -1.0101853838594768
      ],
      [
        -3.1087465462469512
      ],
      [
        -6.246699908622367
      ],
      [
        -0.9947924937753002
      ],
      [
        -1.7187902563010853
      ],
      [
        -0.27046636307758537
      ],
      [
        -1.0288389259436328
      ]
    ]
  },
  "bias_o": {
    "rows": 2,
    "cols": 1,
    "data": [
      [
        -0.2593645278241449
      ],
      [
        0.42936882085879313
      ]
    ]
  },
  "learning_rate": 0.1,
  "activation_function": {}
}
